<?xml version="1.0"?>
<opencv_storage>
<cascade>
  <stageType>BOOST</stageType>
  <featureType>HAAR</featureType>
  <height>48</height>
  <width>64</width>
  <stageParams>
    <boostType>GAB</boostType>
    <minHitRate>9.9500000476837158e-01</minHitRate>
    <maxFalseAlarm>5.0000000000000000e-01</maxFalseAlarm>
    <weightTrimRate>9.4999999999999996e-01</weightTrimRate>
    <maxDepth>1</maxDepth>
    <maxWeakCount>100</maxWeakCount></stageParams>
  <featureParams>
    <maxCatCount>0</maxCatCount>
    <featSize>1</featSize>
    <mode>BASIC</mode></featureParams>
  <stageNum>20</stageNum>
  <stages>
    <!-- stage 0 -->
    <_>
      <maxWeakCount>1</maxWeakCount>
      <stageThreshold>9.8019802570343018e-01</stageThreshold>
      <weakClassifiers>
        <_>
          <internalNodes>
            0 -1 20 1.1302843689918518e-02</internalNodes>
          <leafValues>
            9.8019802570343018e-01 -1.</leafValues></_></weakClassifiers></_>
    <!-- stage 1 -->
    <_>
      <maxWeakCount>1</maxWeakCount>
      <stageThreshold>9.6078431606292725e-01</stageThreshold>
      <weakClassifiers>
        <_>
          <internalNodes>
            0 -1 18 1.5124559402465820e-02</internalNodes>
          <leafValues>
            9.6078431606292725e-01 -1.</leafValues></_></weakClassifiers></_>
    <!-- stage 2 -->
    <_>
      <maxWeakCount>1</maxWeakCount>
      <stageThreshold>9.6078431606292725e-01</stageThreshold>
      <weakClassifiers>
        <_>
          <internalNodes>
            0 -1 16 1.4500422403216362e-02</internalNodes>
          <leafValues>
            9.6078431606292725e-01 -1.</leafValues></_></weakClassifiers></_>
    <!-- stage 3 -->
    <_>
      <maxWeakCount>2</maxWeakCount>
      <stageThreshold>7.0877593755722046e-01</stageThreshold>
      <weakClassifiers>
        <_>
          <internalNodes>
            0 -1 9 1.3487346222973429e-05</internalNodes>
          <leafValues>
            1.3043478131294250e-01 1.</leafValues></_>
        <_>
          <internalNodes>
            0 -1 2 5.9656126722984482e-06</internalNodes>
          <leafValues>
            -2.9122409224510193e-01 1.</leafValues></_></weakClassifiers></_>
    <!-- stage 4 -->
    <_>
      <maxWeakCount>1</maxWeakCount>
      <stageThreshold>9.6078431606292725e-01</stageThreshold>
      <weakClassifiers>
        <_>
          <internalNodes>
            0 -1 4 2.3344014771282673e-03</internalNodes>
          <leafValues>
            9.6078431606292725e-01 -1.</leafValues></_></weakClassifiers></_>
    <!-- stage 5 -->
    <_>
      <maxWeakCount>3</maxWeakCount>
      <stageThreshold>1.1588593721389771e+00</stageThreshold>
      <weakClassifiers>
        <_>
          <internalNodes>
            0 -1 14 -6.0443319380283356e-03</internalNodes>
          <leafValues>
            -7.5000000000000000e-01 9.4117647409439087e-01</leafValues></_>
        <_>
          <internalNodes>
            0 -1 13 9.7496025264263153e-03</internalNodes>
          <leafValues>
            9.0885937213897705e-01 -7.7219963073730469e-01</leafValues></_>
        <_>
          <internalNodes>
            0 -1 15 1.0935509635601193e-05</internalNodes>
          <leafValues>
            -4.4003862142562866e-01 1.</leafValues></_></weakClassifiers></_>
    <!-- stage 6 -->
    <_>
      <maxWeakCount>2</maxWeakCount>
      <stageThreshold>1.6136164963245392e-01</stageThreshold>
      <weakClassifiers>
        <_>
          <internalNodes>
            0 -1 5 -7.1382466703653336e-03</internalNodes>
          <leafValues>
            -7.5000000000000000e-01 9.4117647409439087e-01</leafValues></_>
        <_>
          <internalNodes>
            0 -1 10 1.6959266737103462e-02</internalNodes>
          <leafValues>
            9.1136163473129272e-01 -1.</leafValues></_></weakClassifiers></_>
    <!-- stage 7 -->
    <_>
      <maxWeakCount>1</maxWeakCount>
      <stageThreshold>9.2307692766189575e-01</stageThreshold>
      <weakClassifiers>
        <_>
          <internalNodes>
            0 -1 8 1.3731065392494202e-01</internalNodes>
          <leafValues>
            9.2307692766189575e-01 -1.</leafValues></_></weakClassifiers></_>
    <!-- stage 8 -->
    <_>
      <maxWeakCount>1</maxWeakCount>
      <stageThreshold>9.0476191043853760e-01</stageThreshold>
      <weakClassifiers>
        <_>
          <internalNodes>
            0 -1 1 2.4575954675674438e-01</internalNodes>
          <leafValues>
            9.0476191043853760e-01 -1.</leafValues></_></weakClassifiers></_>
    <!-- stage 9 -->
    <_>
      <maxWeakCount>2</maxWeakCount>
      <stageThreshold>2.2545182704925537e-01</stageThreshold>
      <weakClassifiers>
        <_>
          <internalNodes>
            0 -1 6 -6.6410391591489315e-03</internalNodes>
          <leafValues>
            -7.5000000000000000e-01 9.4117647409439087e-01</leafValues></_>
        <_>
          <internalNodes>
            0 -1 24 2.6765142138174269e-06</internalNodes>
          <leafValues>
            -5.8788216114044189e-01 9.7545182704925537e-01</leafValues></_></weakClassifiers></_>
    <!-- stage 10 -->
    <_>
      <maxWeakCount>2</maxWeakCount>
      <stageThreshold>2.6042354106903076e-01</stageThreshold>
      <weakClassifiers>
        <_>
          <internalNodes>
            0 -1 26 7.7352106571197510e-02</internalNodes>
          <leafValues>
            9.2233008146286011e-01 -7.1428573131561279e-01</leafValues></_>
        <_>
          <internalNodes>
            0 -1 22 4.0635630284668878e-05</internalNodes>
          <leafValues>
            -5.9452754259109497e-01 9.7470927238464355e-01</leafValues></_></weakClassifiers></_>
    <!-- stage 11 -->
    <_>
      <maxWeakCount>1</maxWeakCount>
      <stageThreshold>9.0476191043853760e-01</stageThreshold>
      <weakClassifiers>
        <_>
          <internalNodes>
            0 -1 0 -2.6934534311294556e-01</internalNodes>
          <leafValues>
            -1. 9.0476191043853760e-01</leafValues></_></weakClassifiers></_>
    <!-- stage 12 -->
    <_>
      <maxWeakCount>1</maxWeakCount>
      <stageThreshold>9.8019802570343018e-01</stageThreshold>
      <weakClassifiers>
        <_>
          <internalNodes>
            0 -1 11 -1.0508225858211517e-01</internalNodes>
          <leafValues>
            -1. 9.8019802570343018e-01</leafValues></_></weakClassifiers></_>
    <!-- stage 13 -->
    <_>
      <maxWeakCount>2</maxWeakCount>
      <stageThreshold>4.0510401129722595e-01</stageThreshold>
      <weakClassifiers>
        <_>
          <internalNodes>
            0 -1 23 5.3530284276348539e-06</internalNodes>
          <leafValues>
            -5.8823529630899429e-02 9.7849464416503906e-01</leafValues></_>
        <_>
          <internalNodes>
            0 -1 27 -8.1558879464864731e-03</internalNodes>
          <leafValues>
            -5.7339060306549072e-01 8.7036192417144775e-01</leafValues></_></weakClassifiers></_>
    <!-- stage 14 -->
    <_>
      <maxWeakCount>2</maxWeakCount>
      <stageThreshold>2.0149897038936615e-01</stageThreshold>
      <weakClassifiers>
        <_>
          <internalNodes>
            0 -1 3 -1.4945802977308631e-03</internalNodes>
          <leafValues>
            -7.5000000000000000e-01 9.4117647409439087e-01</leafValues></_>
        <_>
          <internalNodes>
            0 -1 24 2.6765142138174269e-06</internalNodes>
          <leafValues>
            -5.7265210151672363e-01 9.5149898529052734e-01</leafValues></_></weakClassifiers></_>
    <!-- stage 15 -->
    <_>
      <maxWeakCount>2</maxWeakCount>
      <stageThreshold>2.8571429848670959e-01</stageThreshold>
      <weakClassifiers>
        <_>
          <internalNodes>
            0 -1 28 4.4681556522846222e-02</internalNodes>
          <leafValues>
            9.2233008146286011e-01 -7.1428573131561279e-01</leafValues></_>
        <_>
          <internalNodes>
            0 -1 17 2.7608807613432873e-06</internalNodes>
          <leafValues>
            -5.6825631856918335e-01 1.</leafValues></_></weakClassifiers></_>
    <!-- stage 16 -->
    <_>
      <maxWeakCount>2</maxWeakCount>
      <stageThreshold>4.4444444775581360e-01</stageThreshold>
      <weakClassifiers>
        <_>
          <internalNodes>
            0 -1 7 5.8144414651906118e-05</internalNodes>
          <leafValues>
            9.4059407711029053e-01 -5.5555558204650879e-01</leafValues></_>
        <_>
          <internalNodes>
            0 -1 25 2.6024539693025872e-05</internalNodes>
          <leafValues>
            -3.6322513222694397e-01 1.</leafValues></_></weakClassifiers></_>
    <!-- stage 17 -->
    <_>
      <maxWeakCount>1</maxWeakCount>
      <stageThreshold>9.2307692766189575e-01</stageThreshold>
      <weakClassifiers>
        <_>
          <internalNodes>
            0 -1 21 -8.5716077592223883e-04</internalNodes>
          <leafValues>
            -1. 9.2307692766189575e-01</leafValues></_></weakClassifiers></_>
    <!-- stage 18 -->
    <_>
      <maxWeakCount>1</maxWeakCount>
      <stageThreshold>9.0476191043853760e-01</stageThreshold>
      <weakClassifiers>
        <_>
          <internalNodes>
            0 -1 12 2.6673674583435059e-03</internalNodes>
          <leafValues>
            9.0476191043853760e-01 -1.</leafValues></_></weakClassifiers></_>
    <!-- stage 19 -->
    <_>
      <maxWeakCount>2</maxWeakCount>
      <stageThreshold>2.9875022172927856e-01</stageThreshold>
      <weakClassifiers>
        <_>
          <internalNodes>
            0 -1 19 2.6879003271460533e-03</internalNodes>
          <leafValues>
            9.5999997854232788e-01 -6.0000002384185791e-01</leafValues></_>
        <_>
          <internalNodes>
            0 -1 29 -3.3278949558734894e-03</internalNodes>
          <leafValues>
            -1. 8.9875018596649170e-01</leafValues></_></weakClassifiers></_></stages>
  <features>
    <_>
      <rects>
        <_>
          0 0 24 44 -1.</_>
        <_>
          8 0 8 44 3.</_></rects>
      <tilted>0</tilted></_>
    <_>
      <rects>
        <_>
          0 0 59 36 -1.</_>
        <_>
          0 18 59 18 2.</_></rects>
      <tilted>0</tilted></_>
    <_>
      <rects>
        <_>
          0 5 11 24 -1.</_>
        <_>
          0 13 11 8 3.</_></rects>
      <tilted>0</tilted></_>
    <_>
      <rects>
        <_>
          0 9 3 36 -1.</_>
        <_>
          0 21 3 12 3.</_></rects>
      <tilted>0</tilted></_>
    <_>
      <rects>
        <_>
          0 20 64 6 -1.</_>
        <_>
          0 22 64 2 3.</_></rects>
      <tilted>0</tilted></_>
    <_>
      <rects>
        <_>
          0 22 63 12 -1.</_>
        <_>
          0 26 63 4 3.</_></rects>
      <tilted>0</tilted></_>
    <_>
      <rects>
        <_>
          0 23 64 12 -1.</_>
        <_>
          0 27 64 4 3.</_></rects>
      <tilted>0</tilted></_>
    <_>
      <rects>
        <_>
          0 33 1 10 -1.</_>
        <_>
          0 38 1 5 2.</_></rects>
      <tilted>0</tilted></_>
    <_>
      <rects>
        <_>
          1 3 43 40 -1.</_>
        <_>
          1 23 43 20 2.</_></rects>
      <tilted>0</tilted></_>
    <_>
      <rects>
        <_>
          2 0 45 6 -1.</_>
        <_>
          17 0 15 6 3.</_></rects>
      <tilted>0</tilted></_>
    <_>
      <rects>
        <_>
          3 33 18 5 -1.</_>
        <_>
          9 33 6 5 3.</_></rects>
      <tilted>0</tilted></_>
    <_>
      <rects>
        <_>
          5 3 50 39 -1.</_>
        <_>
          30 3 25 39 2.</_></rects>
      <tilted>0</tilted></_>
    <_>
      <rects>
        <_>
          5 29 59 3 -1.</_>
        <_>
          5 30 59 1 3.</_></rects>
      <tilted>0</tilted></_>
    <_>
      <rects>
        <_>
          6 10 22 9 -1.</_>
        <_>
          6 13 22 3 3.</_></rects>
      <tilted>0</tilted></_>
    <_>
      <rects>
        <_>
          9 0 3 16 -1.</_>
        <_>
          10 0 1 16 3.</_></rects>
      <tilted>0</tilted></_>
    <_>
      <rects>
        <_>
          13 17 30 11 -1.</_>
        <_>
          23 17 10 11 3.</_></rects>
      <tilted>0</tilted></_>
    <_>
      <rects>
        <_>
          16 19 18 26 -1.</_>
        <_>
          22 19 6 26 3.</_></rects>
      <tilted>0</tilted></_>
    <_>
      <rects>
        <_>
          16 21 33 9 -1.</_>
        <_>
          27 21 11 9 3.</_></rects>
      <tilted>0</tilted></_>
    <_>
      <rects>
        <_>
          20 15 18 31 -1.</_>
        <_>
          26 15 6 31 3.</_></rects>
      <tilted>0</tilted></_>
    <_>
      <rects>
        <_>
          24 0 12 48 -1.</_>
        <_>
          28 0 4 48 3.</_></rects>
      <tilted>0</tilted></_>
    <_>
      <rects>
        <_>
          27 10 15 34 -1.</_>
        <_>
          32 10 5 34 3.</_></rects>
      <tilted>0</tilted></_>
    <_>
      <rects>
        <_>
          30 1 3 38 -1.</_>
        <_>
          31 1 1 38 3.</_></rects>
      <tilted>0</tilted></_>
    <_>
      <rects>
        <_>
          33 12 5 30 -1.</_>
        <_>
          33 22 5 10 3.</_></rects>
      <tilted>0</tilted></_>
    <_>
      <rects>
        <_>
          34 13 3 27 -1.</_>
        <_>
          34 22 3 9 3.</_></rects>
      <tilted>0</tilted></_>
    <_>
      <rects>
        <_>
          35 12 2 30 -1.</_>
        <_>
          35 22 2 10 3.</_></rects>
      <tilted>0</tilted></_>
    <_>
      <rects>
        <_>
          37 12 3 36 -1.</_>
        <_>
          37 24 3 12 3.</_></rects>
      <tilted>0</tilted></_>
    <_>
      <rects>
        <_>
          43 0 15 36 -1.</_>
        <_>
          48 0 5 36 3.</_></rects>
      <tilted>0</tilted></_>
    <_>
      <rects>
        <_>
          44 6 8 40 -1.</_>
        <_>
          48 6 4 40 2.</_></rects>
      <tilted>0</tilted></_>
    <_>
      <rects>
        <_>
          52 6 8 33 -1.</_>
        <_>
          52 17 8 11 3.</_></rects>
      <tilted>0</tilted></_>
    <_>
      <rects>
        <_>
          53 12 10 1 -1.</_>
        <_>
          58 12 5 1 2.</_></rects>
      <tilted>0</tilted></_></features></cascade>
</opencv_storage>
